  0.100000000000000E+001 -0.546875586829729E+001 -0.472517771708769E+000 -0.490447451606473E+000
  0.100000000000000E+001 -0.785238970190121E+001  0.507785783369650E+000  0.479778407320131E+000
  0.100000000000000E+001 -0.869869690557373E+001  0.515814237688987E+000  0.511610788049853E+000
  0.100000000000000E+001 -0.879029973394904E+001  0.504571763774013E+000  0.481162823832127E+000
  0.100000000000000E+001 -0.900740554669250E+001  0.514110808684707E+000  0.512446474479711E+000
  0.100000000000000E+001 -0.910509372705632E+001  0.484114186139291E+000  0.509586539973161E+000
  0.100000000000000E+001 -0.911856451113108E+001  0.487798403226340E+000  0.513929637053407E+000
  0.100000000000000E+001 -0.919468513335790E+001  0.517780920177535E+000  0.504374993449606E+000
  0.100000000000000E+001 -0.921085294313688E+001  0.513644874908546E+000  0.487854947600105E+000
  0.100000000000000E+001 -0.923834022329328E+001  0.512256001729906E+000  0.513443459474665E+000
  0.100000000000000E+001 -0.926336433853026E+001  0.513741694066317E+000  0.511815228043270E+000
  0.100000000000000E+001 -0.958277640219884E+001  0.505642458469658E+000  0.516268227487285E+000
  0.100000000000000E+001 -0.986308050673729E+001  0.483797353168986E+000  0.497563529525022E+000
  0.100000000000000E+001 -0.996026743455054E+001  0.514536810217563E+000  0.493113447261275E+000
  0.100000000000000E+001 -0.100390889507134E+002  0.485169994245848E+000  0.505561675794239E+000
  0.100000000000000E+001 -0.871957246460349E+001 -0.503513625719759E+000 -0.522563174141349E+000
  0.100000000000000E+001 -0.913525004428056E+001 -0.515013981923841E+000 -0.515951645114353E+000
  0.100000000000000E+001 -0.956442617221967E+001 -0.520247134151026E+000 -0.505197170474414E+000
  0.100000000000000E+001 -0.966393428154639E+001 -0.479400441820428E+000 -0.498367696675399E+000
  0.100000000000000E+001 -0.976191663548367E+001 -0.504251669717163E+000 -0.480021729790607E+000
  0.100000000000000E+001 -0.100821470993498E+002  0.485137552288666E+000  0.505065880128134E+000
  0.100000000000000E+001 -0.101265075276496E+002  0.484554275176589E+000  0.498116111655581E+000
  0.100000000000000E+001 -0.103316294968252E+002  0.485878942063950E+000  0.504712003444813E+000
  0.100000000000000E+001 -0.104411331750969E+002  0.514408016694938E+000  0.498249017193561E+000
  0.100000000000000E+001 -0.104713287632923E+002  0.486638072832840E+000  0.505394092085795E+000
  0.100000000000000E+001 -0.105279617710949E+002  0.494055376995086E+000  0.487091263284128E+000
  0.100000000000000E+001 -0.106438893285610E+002  0.511484762428444E+000  0.507647319954458E+000
  0.100000000000000E+001 -0.106533164821946E+002  0.506842002862081E+000  0.488057405977110E+000
  0.100000000000000E+001 -0.107795699652126E+002  0.513014502228777E+000  0.502726891746230E+000
  0.100000000000000E+001 -0.108713454762022E+002  0.497951964536414E+000  0.512784412638030E+000
  0.100000000000000E+001 -0.108734497493672E+002  0.510635122212963E+000  0.507370169873101E+000
  0.100000000000000E+001 -0.109443463927082E+002  0.511341518824654E+000  0.505630765033185E+000
  0.100000000000000E+001 -0.109912800435715E+002  0.504676916512876E+000  0.511565839829177E+000
  0.100000000000000E+001 -0.110450466498589E+002  0.497841247149888E+000  0.512066703134079E+000
  0.100000000000000E+001 -0.110731324545788E+002  0.508195976136471E+000  0.508960074391000E+000
  0.100000000000000E+001 -0.111737154924473E+002  0.491918819697974E+000  0.508490770227793E+000
  0.100000000000000E+001 -0.112907702656785E+002  0.505066979141870E+000  0.510000944914744E+000
  0.100000000000000E+001 -0.114824310047369E+002  0.506538510275073E+000  0.507985924260148E+000
  0.100000000000000E+001 -0.114921126894020E+002  0.495493264749502E+000  0.509232999069720E+000
  0.100000000000000E+001 -0.115210461840731E+002  0.503016775143702E+000  0.490327117663034E+000
  0.100000000000000E+001 -0.115841130524460E+002  0.495414889110749E+000  0.508679611527507E+000
  0.100000000000000E+001 -0.115961101165657E+002  0.491272464914263E+000  0.495642325958679E+000
  0.100000000000000E+001 -0.116244638248532E+002  0.491757561434091E+000  0.495061778925398E+000
  0.100000000000000E+001 -0.117144634713109E+002  0.498382511901193E+000  0.491016259771182E+000
  0.100000000000000E+001 -0.117317257819400E+002  0.504873200458151E+000  0.507605888671314E+000
  0.100000000000000E+001 -0.118492814574888E+002  0.506593792515462E+000  0.505134584490871E+000
  0.100000000000000E+001 -0.101977468057692E+002 -0.480676636759502E+000 -0.499517722081574E+000
  0.100000000000000E+001 -0.103518293324135E+002 -0.517406455493611E+000 -0.492568175634520E+000
  0.100000000000000E+001 -0.104932656393932E+002 -0.505774573396668E+000 -0.482372539104031E+000
  0.100000000000000E+001 -0.106839255154458E+002 -0.514501189482352E+000 -0.489289136750753E+000
  0.100000000000000E+001 -0.108199790992505E+002 -0.483751014149952E+000 -0.493117254297039E+000
  0.100000000000000E+001 -0.112207811792553E+002 -0.508146627847524E+000 -0.485683786244955E+000
  0.100000000000000E+001 -0.114609200889389E+002 -0.515505649796150E+000 -0.497376556652605E+000
  0.100000000000000E+001 -0.117911248517691E+002 -0.509348998352428E+000 -0.488735747511658E+000
  0.100000000000000E+001 -0.119838428407285E+002  0.498441703834952E+000  0.492654414089476E+000
  0.100000000000000E+001 -0.122415636306037E+002  0.499717295392267E+000  0.494474249514850E+000
  0.100000000000000E+001 -0.122422813939360E+002  0.504998873283366E+000  0.502356550420211E+000
  0.100000000000000E+001 -0.122924153020957E+002  0.503122022639130E+000  0.503972612215022E+000
  0.100000000000000E+001 -0.123670599996463E+002  0.503522120014760E+000  0.497621161204128E+000
  0.100000000000000E+001 -0.123794170886302E+002  0.504050898264488E+000  0.499352915950211E+000
  0.100000000000000E+001 -0.124702869930989E+002  0.502744863348632E+000  0.500455224414103E+000
  0.100000000000000E+001 -0.124939923104984E+002  0.501585936938742E+000  0.501689904244696E+000
  0.100000000000000E+001 -0.124963393103007E+002  0.501251900040335E+000  0.501889184649178E+000
  0.100000000000000E+001 -0.118923144110371E+002 -0.506880659538058E+000 -0.487477032192433E+000
  0.100000000000000E+001 -0.120588390447319E+002 -0.486568926255225E+000 -0.502668706256028E+000
  0.100000000000000E+001 -0.121047286330709E+002 -0.506134601728642E+000 -0.487946227237267E+000
  0.100000000000000E+001 -0.121638718534109E+002 -0.488848203715823E+000 -0.507256024654511E+000
  0.100000000000000E+001 -0.122286287232561E+002 -0.497007838525931E+000 -0.487288440816358E+000
  0.100000000000000E+001 -0.122554551843583E+002 -0.492128722494588E+000 -0.510290632220068E+000
  0.100000000000000E+001 -0.122661752522812E+002 -0.505363644283332E+000 -0.488252088089133E+000
  0.100000000000000E+001 -0.122691557322895E+002 -0.495273082731157E+000 -0.487994154782095E+000
  0.100000000000000E+001 -0.122860186609410E+002 -0.505190912841456E+000 -0.488258952462832E+000
  0.100000000000000E+001 -0.123990220561043E+002 -0.505796645907892E+000 -0.489050281734226E+000
  0.100000000000000E+001 -0.126817487159547E+002 -0.510874327801083E+000 -0.502640788285883E+000
  0.100000000000000E+001 -0.127360383207989E+002 -0.509180582910188E+000 -0.494040746284894E+000
  0.100000000000000E+001 -0.128170537032593E+002 -0.491259598723529E+000 -0.494058648748637E+000
  0.100000000000000E+001 -0.129415023822778E+002 -0.490282493387346E+000 -0.502195328334664E+000
  0.100000000000000E+001 -0.129418292922061E+002 -0.499314136992692E+000 -0.490062882600757E+000
  0.100000000000000E+001 -0.129646422804795E+002 -0.490678291253154E+000 -0.503168778547447E+000
  0.100000000000000E+001 -0.129772477991131E+002 -0.490293106772853E+000 -0.498795390745012E+000
  0.100000000000000E+001 -0.130179557835156E+002 -0.496433711940533E+000 -0.508881759432515E+000
  0.100000000000000E+001 -0.130806898698244E+002 -0.501729793566345E+000 -0.509074054591368E+000
  0.100000000000000E+001 -0.131423016902341E+002 -0.491725781347681E+000 -0.503272121049403E+000
  0.100000000000000E+001 -0.133033078360116E+002 -0.494031794098477E+000 -0.494760784962649E+000
  0.100000000000000E+001 -0.133474315385855E+002 -0.507407068192802E+000 -0.501947261261455E+000
  0.100000000000000E+001 -0.134283244383896E+002 -0.507105765388885E+000 -0.499725602676938E+000
  0.100000000000000E+001 -0.134443412602843E+002 -0.503390665614590E+000 -0.493878815461584E+000
  0.100000000000000E+001 -0.134517295205969E+002 -0.500685143546777E+000 -0.493089336808066E+000
  0.100000000000000E+001 -0.134949602517787E+002 -0.500279636901095E+000 -0.493379923148678E+000
  0.100000000000000E+001 -0.135013332852060E+002 -0.498936883835268E+000 -0.493508767837196E+000
  0.100000000000000E+001 -0.135559155607795E+002 -0.496091005341052E+000 -0.495253649383990E+000
  0.100000000000000E+001 -0.135583138561302E+002 -0.505915388949419E+000 -0.501605125370742E+000
  0.100000000000000E+001 -0.135605835614164E+002 -0.494502607005688E+000 -0.502668324121276E+000
  0.100000000000000E+001 -0.136361448800516E+002 -0.500828282993591E+000 -0.494605641950231E+000
  0.100000000000000E+001 -0.136816557397058E+002 -0.495233932624536E+000 -0.498412969031903E+000
  0.100000000000000E+001 -0.137407042936873E+002 -0.495606925291408E+000 -0.500173507140291E+000
  0.100000000000000E+001 -0.137789544447830E+002 -0.502310481409740E+000 -0.503188396253398E+000
  0.100000000000000E+001 -0.138052904575189E+002 -0.501179847470162E+000 -0.503388001429603E+000
  0.100000000000000E+001 -0.138195541785504E+002 -0.502804917726986E+000 -0.498108794516312E+000
  0.100000000000000E+001 -0.138997163802556E+002 -0.501389572448830E+000 -0.501223556241302E+000
  0.100000000000000E+001 -0.139127199044116E+002 -0.498784133708382E+000 -0.500805802836607E+000
