  0.100000000000000E+001  0.765839450716807E+001  0.345150215468393E+000  0.582908429414061E+000
  0.100000000000000E+001  0.438130820927327E+000 -0.440793558023159E+000 -0.531314112159905E+000
  0.100000000000000E+001 -0.478061056047263E+001 -0.342434385290589E+000 -0.445131755015006E+000
  0.100000000000000E+001 -0.456334896288492E+001 -0.329305292150531E+000 -0.429934718925395E+000
  0.100000000000000E+001 -0.235161113051542E+001  0.493048418818137E+000  0.453222793659771E+000
  0.100000000000000E+001 -0.238491426292810E+001  0.706378269708143E+000  0.604855880697841E+000
  0.100000000000000E+001 -0.306736018753011E+001  0.655085707526921E+000  0.518763490863337E+000
  0.100000000000000E+001 -0.346152551041737E+001  0.398745035018806E+000  0.492992896489398E+000
  0.100000000000000E+001 -0.441758215669015E+001 -0.456412714457880E+000 -0.455499548270239E+000
  0.100000000000000E+001 -0.412307968763606E+001 -0.392240035767402E+000 -0.483273775920144E+000
  0.100000000000000E+001 -0.206239762465514E+001 -0.416437656771104E+000 -0.509036080373406E+000
  0.100000000000000E+001 -0.406113852844989E+001  0.321071105401920E+000  0.369675343741702E+000
  0.100000000000000E+001 -0.417250633758815E+001  0.463855427534516E+000  0.452913432348872E+000
  0.100000000000000E+001 -0.120746943201044E+001 -0.433021273526258E+000 -0.285138677457647E+000
  0.100000000000000E+001 -0.437141377706780E+001  0.560733900138399E+000  0.530464174241112E+000
  0.100000000000000E+001 -0.441570899481957E+001 -0.604778813987667E+000 -0.521004397850643E+000
  0.100000000000000E+001 -0.458366887270918E+001  0.617809876307985E+000  0.674335977999678E+000
  0.100000000000000E+001 -0.461812610431344E+001  0.585087238616923E+000  0.674394191928323E+000
  0.100000000000000E+001 -0.467065715783052E+001  0.327121334427456E+000  0.417727343774728E+000
  0.100000000000000E+001 -0.475385236218587E+001  0.537959589708019E+000  0.639605068772301E+000
  0.100000000000000E+001 -0.265758156920188E+001 -0.702844838211539E+000 -0.590989626464996E+000
  0.100000000000000E+001 -0.122992690914834E+001 -0.712719001625184E+000 -0.639010394774307E+000
  0.100000000000000E+001 -0.132897992922467E+001 -0.482217930271523E+000 -0.588861474777064E+000
  0.100000000000000E+001 -0.532938008880956E+001 -0.663075085161641E+000 -0.599466226358836E+000
  0.100000000000000E+001 -0.617621975094784E+001 -0.628246915775052E+000 -0.567384594582004E+000
  0.100000000000000E+001 -0.637025188298575E+001 -0.563113690244776E+000 -0.596001655086931E+000
  0.100000000000000E+001 -0.513177241196506E+001 -0.452994927668337E+000 -0.440808451371613E+000
  0.100000000000000E+001 -0.539985305228095E+001 -0.345001240145304E+000 -0.427887368982239E+000
  0.100000000000000E+001 -0.578225563657506E+001 -0.399056724190687E+000 -0.453345195373026E+000
  0.100000000000000E+001 -0.583414223864623E+001 -0.349743065333474E+000 -0.386176598633351E+000
  0.100000000000000E+001 -0.620713677583392E+001 -0.442231039511366E+000 -0.400957432821286E+000
  0.100000000000000E+001 -0.634587977220891E+001 -0.386034695137389E+000 -0.435248764780889E+000
  0.100000000000000E+001 -0.596336868340972E+001  0.398461213011167E+000  0.351097935250945E+000
  0.100000000000000E+001 -0.618715896429543E+001  0.362604465610678E+000  0.420877697377540E+000
  0.100000000000000E+001 -0.622602354475024E+001  0.363718993910509E+000  0.420514175473138E+000
  0.100000000000000E+001 -0.643714598205788E+001  0.379705639233383E+000  0.371760391677445E+000
  0.100000000000000E+001 -0.511655158629654E+001  0.533838731327627E+000  0.611556533490462E+000
  0.100000000000000E+001 -0.514225113936751E+001  0.569465456110304E+000  0.659280817623857E+000
  0.100000000000000E+001 -0.555741365835884E+001  0.623151014739743E+000  0.653597554725278E+000
  0.100000000000000E+001 -0.559170209696971E+001  0.547430812984913E+000  0.623652325942492E+000
  0.100000000000000E+001 -0.591782967428132E+001  0.550324295241479E+000  0.593675340289230E+000
  0.100000000000000E+001 -0.592929477129616E+001  0.569598588718007E+000  0.639429925662824E+000
  0.100000000000000E+001 -0.607958871008790E+001  0.570372652237875E+000  0.635006433065395E+000
  0.100000000000000E+001 -0.615249069054776E+001  0.577612793121197E+000  0.562319016905156E+000
  0.100000000000000E+001 -0.618506760647013E+001  0.560128317967259E+000  0.615804597908147E+000
  0.100000000000000E+001 -0.621923806062695E+001  0.576441692350164E+000  0.565370942385957E+000
  0.100000000000000E+001 -0.624711615564507E+001  0.589274583112333E+000  0.639615358132317E+000
  0.100000000000000E+001 -0.627617814415126E+001  0.630988981534552E+000  0.574476686595450E+000
  0.100000000000000E+001 -0.641745377156638E+001  0.584121335912352E+000  0.568275239011833E+000
  0.100000000000000E+001 -0.671367554668256E+001 -0.590297212699981E+000 -0.579411777610453E+000
  0.100000000000000E+001 -0.645069026489199E+001 -0.433635649241588E+000 -0.393357424076834E+000
  0.100000000000000E+001 -0.652115728948168E+001 -0.421380536245778E+000 -0.423285209820206E+000
  0.100000000000000E+001 -0.666252783410462E+001 -0.375138330935119E+000 -0.405270620847739E+000
  0.100000000000000E+001 -0.647625980187422E+001  0.432312713870531E+000  0.408213094131407E+000
  0.100000000000000E+001 -0.648687972579431E+001  0.367930318911419E+000  0.407519163518793E+000
  0.100000000000000E+001 -0.656949934149509E+001  0.385170280042071E+000  0.374338110455843E+000
  0.100000000000000E+001 -0.661362061155639E+001  0.393229076323757E+000  0.373124274846958E+000
  0.100000000000000E+001 -0.667744132894378E+001  0.409303840804793E+000  0.377151872833436E+000
  0.100000000000000E+001 -0.668152874417884E+001  0.419926645453153E+000  0.385811648026763E+000
  0.100000000000000E+001 -0.668752849692663E+001  0.417650076508335E+000  0.416488289610967E+000
  0.100000000000000E+001 -0.670970747562067E+001  0.421824096871448E+000  0.407186608233107E+000
  0.100000000000000E+001 -0.646223992198906E+001  0.566369214864994E+000  0.596052423575195E+000
  0.100000000000000E+001 -0.648105595438193E+001  0.584179580734830E+000  0.570857308270656E+000
  0.100000000000000E+001 -0.653357228729852E+001  0.628638781752389E+000  0.587830730799928E+000
  0.100000000000000E+001 -0.657146156865536E+001  0.593234022008687E+000  0.628770978739746E+000
  0.100000000000000E+001 -0.658959706244318E+001  0.586521858550972E+000  0.574572432391952E+000
  0.100000000000000E+001 -0.661099794524622E+001  0.627091615342007E+000  0.593616339366341E+000
  0.100000000000000E+001 -0.666117843362417E+001  0.603314758858144E+000  0.574735973250175E+000
  0.100000000000000E+001 -0.687800149853749E+001 -0.394767610812135E+000 -0.408934238319477E+000
  0.100000000000000E+001 -0.683082123482159E+001  0.593637384999804E+000  0.586410727751516E+000
  0.100000000000000E+001 -0.683358917333684E+001  0.599660309325819E+000  0.585231280962146E+000
  0.100000000000000E+001 -0.688643117962742E+001 -0.592505913399482E+000 -0.605473835860313E+000
  0.100000000000000E+001 -0.688993550489099E+001 -0.398446805970767E+000 -0.408657443045398E+000
  0.100000000000000E+001 -0.689140895806159E+001 -0.396872805992967E+000 -0.407993784690891E+000
  0.100000000000000E+001 -0.689146546701122E+001  0.592406712083990E+000  0.596014873578925E+000
  0.100000000000000E+001 -0.691226739236313E+001 -0.395690549324905E+000 -0.401721078760302E+000
