  0.100000000000000E+001 -0.252920046394191E+001 -0.405451406500827E+000 -0.504657760168144E+000
  0.100000000000000E+001 -0.155147753824067E+001  0.679359251929973E+000  0.684413368539633E+000
  0.100000000000000E+001 -0.176260369822090E+001  0.362517909847660E+000  0.292804920015150E+000
  0.100000000000000E+001 -0.241067623859687E+001  0.690274372421330E+000  0.655911077508316E+000
  0.100000000000000E+001 -0.228778458579268E+001 -0.541732547852793E+000 -0.509044114404952E+000
  0.100000000000000E+001 -0.278724386906301E+001  0.558308005607490E+000  0.507143099079383E+000
  0.100000000000000E+001 -0.626833978260441E+000 -0.525325256916073E+000 -0.393955683869253E+000
  0.100000000000000E+001 -0.407429480700853E+001  0.518086572867383E+000  0.579785074725261E+000
  0.100000000000000E+001 -0.416820957406240E+001  0.676263552749754E+000  0.632642734070778E+000
  0.100000000000000E+001 -0.465014766772518E+001  0.553175364300984E+000  0.540949438303149E+000
  0.100000000000000E+001 -0.474310918037978E+001  0.604953043471760E+000  0.526379128717713E+000
  0.100000000000000E+001 -0.493696608318957E+001  0.534916439882768E+000  0.573077866831700E+000
  0.100000000000000E+001 -0.557839657120490E+001  0.542346667384413E+000  0.605686762354957E+000
  0.100000000000000E+001 -0.370121479694581E+001  0.482449462507293E+000  0.364626634961625E+000
  0.100000000000000E+001 -0.426355415018516E+001  0.450984958199133E+000  0.336408724121096E+000
  0.100000000000000E+001 -0.441601058787756E+001  0.400618146705861E+000  0.479133588941804E+000
  0.100000000000000E+001 -0.444005419889325E+001  0.473457208296084E+000  0.428426295196787E+000
  0.100000000000000E+001 -0.444800895095764E+001  0.379367672426207E+000  0.475871818872045E+000
  0.100000000000000E+001 -0.468301366463478E+001  0.338474981119525E+000  0.357463669751611E+000
  0.100000000000000E+001 -0.350590849084270E+001 -0.605824787479601E+000 -0.507782502569139E+000
  0.100000000000000E+001 -0.351076417447564E+001 -0.661191869892723E+000 -0.669143662931270E+000
  0.100000000000000E+001 -0.383328966485131E+001 -0.596992078134594E+000 -0.512189212733915E+000
  0.100000000000000E+001 -0.427243377431966E+001 -0.614140443734186E+000 -0.680132171542977E+000
  0.100000000000000E+001 -0.431684832329754E+001 -0.640846036905389E+000 -0.530417763993897E+000
  0.100000000000000E+001 -0.461692846351521E+001 -0.673889440942835E+000 -0.582672828702952E+000
  0.100000000000000E+001 -0.484907710440712E+001 -0.625678085056887E+000 -0.667232021298038E+000
  0.100000000000000E+001 -0.489829345447613E+001 -0.538786343971916E+000 -0.636185084597586E+000
  0.100000000000000E+001 -0.491994051227154E+001 -0.547012022726536E+000 -0.553135494832449E+000
  0.100000000000000E+001 -0.500028312087742E+001 -0.569415263036360E+000 -0.537814727593326E+000
  0.100000000000000E+001 -0.527277995078665E+001 -0.537572307954306E+000 -0.614935194230356E+000
  0.100000000000000E+001 -0.529782231260563E+001 -0.578591909064070E+000 -0.659994494641928E+000
  0.100000000000000E+001 -0.530060610433513E+001 -0.585040578858763E+000 -0.538135918306790E+000
  0.100000000000000E+001 -0.547876370473599E+001 -0.546684909138485E+000 -0.572374677998611E+000
  0.100000000000000E+001 -0.448007531843100E+001 -0.353790636845410E+000 -0.337018193408305E+000
  0.100000000000000E+001 -0.561718670597779E+001 -0.367236798415196E+000 -0.353247381264422E+000
  0.100000000000000E+001 -0.306334236477808E+001 -0.306254420006762E+000 -0.429250843128219E+000
  0.100000000000000E+001 -0.318778297699205E+001 -0.464990584062558E+000 -0.471696849179370E+000
  0.100000000000000E+001 -0.532108990912843E+001 -0.459625107109760E+000 -0.421087480332646E+000
  0.100000000000000E+001 -0.562587427860946E+001 -0.344914280581519E+000 -0.414250590927109E+000
  0.100000000000000E+001 -0.588792982456497E+001  0.645756040817146E+000  0.577892043222670E+000
  0.100000000000000E+001 -0.604597130845084E+001  0.626443245969268E+000  0.638574965654873E+000
  0.100000000000000E+001 -0.639162122169862E+001  0.594207883151607E+000  0.635910999421112E+000
  0.100000000000000E+001 -0.586439332302302E+001  0.361372051024033E+000  0.433898379555191E+000
  0.100000000000000E+001 -0.624865652861898E+001  0.439193343162312E+000  0.412019812098689E+000
  0.100000000000000E+001 -0.589540095524040E+001 -0.382075664116520E+000 -0.447354231296366E+000
  0.100000000000000E+001 -0.611213676311585E+001 -0.358295712784509E+000 -0.416811070684370E+000
  0.100000000000000E+001 -0.612858308946918E+001 -0.356179090328466E+000 -0.407776354162011E+000
  0.100000000000000E+001 -0.636470302205874E+001 -0.368744221930270E+000 -0.379664801651410E+000
  0.100000000000000E+001 -0.641457620410389E+001 -0.364681316134924E+000 -0.395716125101096E+000
  0.100000000000000E+001 -0.648980648683950E+001 -0.390007984493234E+000 -0.431270561184703E+000
  0.100000000000000E+001 -0.649698127241767E+001 -0.376723719948261E+000 -0.377241196851441E+000
  0.100000000000000E+001 -0.611476753065444E+001 -0.443191632837572E+000 -0.387761853858405E+000
  0.100000000000000E+001 -0.624689995370091E+001 -0.429457273314697E+000 -0.371412917802847E+000
  0.100000000000000E+001 -0.639509197427590E+001 -0.434536711502321E+000 -0.388968644113841E+000
  0.100000000000000E+001 -0.643704382293274E+001 -0.420386845834667E+000 -0.428177931948688E+000
  0.100000000000000E+001 -0.648763842220598E+001 -0.422290083048909E+000 -0.375787232184096E+000
  0.100000000000000E+001 -0.589206271781571E+001 -0.643989572219136E+000 -0.625238110950403E+000
  0.100000000000000E+001 -0.606006194657972E+001 -0.643849614827968E+000 -0.615141265426079E+000
  0.100000000000000E+001 -0.636792321165223E+001 -0.575287134639922E+000 -0.572220416539371E+000
  0.100000000000000E+001 -0.665338253483420E+001  0.376773634314233E+000  0.411370194306909E+000
  0.100000000000000E+001 -0.666887505975718E+001 -0.378367171681910E+000 -0.412729291663956E+000
  0.100000000000000E+001 -0.656427922523587E+001 -0.413022424521963E+000 -0.373131429456762E+000
  0.100000000000000E+001 -0.657354859260310E+001 -0.422572917870878E+000 -0.418942253843451E+000
  0.100000000000000E+001 -0.658008973670528E+001 -0.428859639815654E+000 -0.404371084581259E+000
  0.100000000000000E+001 -0.658198303949371E+001 -0.421661238567539E+000 -0.380556869655117E+000
  0.100000000000000E+001 -0.665150775247387E+001 -0.425832643225246E+000 -0.402472262003276E+000
  0.100000000000000E+001 -0.668547695957374E+001 -0.404277228393495E+000 -0.376120834681523E+000
  0.100000000000000E+001 -0.673607392949931E+001  0.381961614700449E+000  0.411689040649629E+000
  0.100000000000000E+001 -0.677808623360162E+001  0.398129501459750E+000  0.418801311977975E+000
  0.100000000000000E+001 -0.674061657018647E+001 -0.378793574127225E+000 -0.399026515356090E+000
  0.100000000000000E+001 -0.678232468133760E+001 -0.387737427451601E+000 -0.414000705641568E+000
  0.100000000000000E+001 -0.676702336254456E+001 -0.580421439395619E+000 -0.598848473374760E+000
  0.100000000000000E+001 -0.678235350296671E+001 -0.616813481533074E+000 -0.607976506719971E+000
  0.100000000000000E+001 -0.678425641260419E+001 -0.617608062700096E+000 -0.594386016327141E+000
  0.100000000000000E+001 -0.680281059588915E+001  0.588905499572032E+000  0.586881655015854E+000
  0.100000000000000E+001 -0.682943500669092E+001  0.414960823345084E+000  0.397811550318525E+000
  0.100000000000000E+001 -0.684979103878116E+001  0.402514704994773E+000  0.413092063382021E+000
  0.100000000000000E+001 -0.683295790226727E+001 -0.405870860742722E+000 -0.386386035036764E+000
  0.100000000000000E+001 -0.680982095587704E+001 -0.416363354036705E+000 -0.403145224186237E+000
  0.100000000000000E+001 -0.685553218748710E+001 -0.395784580424557E+000 -0.412066578813055E+000
  0.100000000000000E+001 -0.687070771588614E+001 -0.402834105010007E+000 -0.389164855495177E+000
  0.100000000000000E+001 -0.691001584040275E+001 -0.405130990875899E+000 -0.400914190864516E+000
